<?xml version="1.0"?>
<opencv_storage>
<cascade>
  <stageType>BOOST</stageType>
  <featureType>HAAR</featureType>
  <height>24</height>
  <width>36</width>
  <stageParams>
    <boostType>GAB</boostType>
    <minHitRate>9.9500000476837158e-01</minHitRate>
    <maxFalseAlarm>5.0000000000000000e-01</maxFalseAlarm>
    <weightTrimRate>9.4999998807907104e-01</weightTrimRate>
    <maxDepth>1</maxDepth>
    <maxWeakCount>100</maxWeakCount></stageParams>
  <featureParams>
    <maxCatCount>0</maxCatCount>
    <featSize>1</featSize>
    <mode>BASIC</mode></featureParams>
  <stageNum>19</stageNum>
  <stages>
    <!-- stage 0 -->
    <_>
      <maxWeakCount>2</maxWeakCount>
      <stageThreshold>-9.1599650681018829e-02</stageThreshold>
      <weakClassifiers>
        <_>
          <internalNodes>
            0 -1 19 6.7167548695579171e-04</internalNodes>
          <leafValues>
            -9.1666668653488159e-01 7.7777779102325439e-01</leafValues></_>
        <_>
          <internalNodes>
            0 -1 27 -2.0821577345486730e-04</internalNodes>
          <leafValues>
            9.1431260108947754e-01 -8.6937743425369263e-01</leafValues></_></weakClassifiers></_>
    <!-- stage 1 -->
    <_>
      <maxWeakCount>2</maxWeakCount>
      <stageThreshold>1.9538998603820801e-01</stageThreshold>
      <weakClassifiers>
        <_>
          <internalNodes>
            0 -1 26 1.9089505076408386e-04</internalNodes>
          <leafValues>
            1. -7.2413790225982666e-01</leafValues></_>
        <_>
          <internalNodes>
            0 -1 15 -2.3748854175209999e-02</internalNodes>
          <leafValues>
            9.1952794790267944e-01 -7.7543222904205322e-01</leafValues></_></weakClassifiers></_>
    <!-- stage 2 -->
    <_>
      <maxWeakCount>2</maxWeakCount>
      <stageThreshold>-1.9600950181484222e-01</stageThreshold>
      <weakClassifiers>
        <_>
          <internalNodes>
            0 -1 10 -2.3432564921677113e-03</internalNodes>
          <leafValues>
            7.7777779102325439e-01 -9.1666668653488159e-01</leafValues></_>
        <_>
          <internalNodes>
            0 -1 24 3.7337047979235649e-04</internalNodes>
          <leafValues>
            7.2065716981887817e-01 -1.</leafValues></_></weakClassifiers></_>
    <!-- stage 3 -->
    <_>
      <maxWeakCount>2</maxWeakCount>
      <stageThreshold>1.9538998603820801e-01</stageThreshold>
      <weakClassifiers>
        <_>
          <internalNodes>
            0 -1 5 -7.8165996819734573e-03</internalNodes>
          <leafValues>
            1. -7.2413790225982666e-01</leafValues></_>
        <_>
          <internalNodes>
            0 -1 8 1.1395475827157497e-02</internalNodes>
          <leafValues>
            -7.7543222904205322e-01 9.1952794790267944e-01</leafValues></_></weakClassifiers></_>
    <!-- stage 4 -->
    <_>
      <maxWeakCount>2</maxWeakCount>
      <stageThreshold>-3.2315462827682495e-01</stageThreshold>
      <weakClassifiers>
        <_>
          <internalNodes>
            0 -1 12 -3.3062931615859270e-03</internalNodes>
          <leafValues>
            6.0000002384185791e-01 -9.0909093618392944e-01</leafValues></_>
        <_>
          <internalNodes>
            0 -1 21 8.0496020382270217e-04</internalNodes>
          <leafValues>
            6.8347859382629395e-01 -9.2315465211868286e-01</leafValues></_></weakClassifiers></_>
    <!-- stage 5 -->
    <_>
      <maxWeakCount>1</maxWeakCount>
      <stageThreshold>5.4545456171035767e-01</stageThreshold>
      <weakClassifiers>
        <_>
          <internalNodes>
            0 -1 25 -3.0610983958467841e-04</internalNodes>
          <leafValues>
            -1. 5.4545456171035767e-01</leafValues></_></weakClassifiers></_>
    <!-- stage 6 -->
    <_>
      <maxWeakCount>2</maxWeakCount>
      <stageThreshold>-2.4563932418823242e-01</stageThreshold>
      <weakClassifiers>
        <_>
          <internalNodes>
            0 -1 11 -4.0193237364292145e-03</internalNodes>
          <leafValues>
            6.8421053886413574e-01 -9.1304349899291992e-01</leafValues></_>
        <_>
          <internalNodes>
            0 -1 7 -1.0323949158191681e-02</internalNodes>
          <leafValues>
            6.6740417480468750e-01 -9.2398405075073242e-01</leafValues></_></weakClassifiers></_>
    <!-- stage 7 -->
    <_>
      <maxWeakCount>2</maxWeakCount>
      <stageThreshold>2.9346805810928345e-01</stageThreshold>
      <weakClassifiers>
        <_>
          <internalNodes>
            0 -1 2 2.6787277311086655e-02</internalNodes>
          <leafValues>
            -6.6666668653488159e-01 1.</leafValues></_>
        <_>
          <internalNodes>
            0 -1 23 2.1034227393101901e-04</internalNodes>
          <leafValues>
            -7.0653194189071655e-01 1.</leafValues></_></weakClassifiers></_>
    <!-- stage 8 -->
    <_>
      <maxWeakCount>1</maxWeakCount>
      <stageThreshold>5.4545456171035767e-01</stageThreshold>
      <weakClassifiers>
        <_>
          <internalNodes>
            0 -1 30 8.7125263235066086e-05</internalNodes>
          <leafValues>
            5.4545456171035767e-01 -1.</leafValues></_></weakClassifiers></_>
    <!-- stage 9 -->
    <_>
      <maxWeakCount>1</maxWeakCount>
      <stageThreshold>5.4545456171035767e-01</stageThreshold>
      <weakClassifiers>
        <_>
          <internalNodes>
            0 -1 6 7.4740237323567271e-04</internalNodes>
          <leafValues>
            5.4545456171035767e-01 -1.</leafValues></_></weakClassifiers></_>
    <!-- stage 10 -->
    <_>
      <maxWeakCount>2</maxWeakCount>
      <stageThreshold>-2.4563932418823242e-01</stageThreshold>
      <weakClassifiers>
        <_>
          <internalNodes>
            0 -1 13 -2.4242275394499302e-03</internalNodes>
          <leafValues>
            -9.1304349899291992e-01 6.8421053886413574e-01</leafValues></_>
        <_>
          <internalNodes>
            0 -1 4 6.9114230573177338e-03</internalNodes>
          <leafValues>
            6.6740417480468750e-01 -9.2398405075073242e-01</leafValues></_></weakClassifiers></_>
    <!-- stage 11 -->
    <_>
      <maxWeakCount>2</maxWeakCount>
      <stageThreshold>-2.4200433492660522e-01</stageThreshold>
      <weakClassifiers>
        <_>
          <internalNodes>
            0 -1 22 -6.6198408603668213e-05</internalNodes>
          <leafValues>
            6.8421053886413574e-01 -9.1304349899291992e-01</leafValues></_>
        <_>
          <internalNodes>
            0 -1 9 1.0209837928414345e-03</internalNodes>
          <leafValues>
            -9.2621487379074097e-01 7.2476923465728760e-01</leafValues></_></weakClassifiers></_>
    <!-- stage 12 -->
    <_>
      <maxWeakCount>1</maxWeakCount>
      <stageThreshold>5.4545456171035767e-01</stageThreshold>
      <weakClassifiers>
        <_>
          <internalNodes>
            0 -1 14 1.5132848056964576e-04</internalNodes>
          <leafValues>
            5.4545456171035767e-01 -1.</leafValues></_></weakClassifiers></_>
    <!-- stage 13 -->
    <_>
      <maxWeakCount>2</maxWeakCount>
      <stageThreshold>-2.0768532156944275e-01</stageThreshold>
      <weakClassifiers>
        <_>
          <internalNodes>
            0 -1 3 -1.8076880369335413e-03</internalNodes>
          <leafValues>
            7.7777779102325439e-01 -9.1666668653488159e-01</leafValues></_>
        <_>
          <internalNodes>
            0 -1 31 1.1311220987408888e-05</internalNodes>
          <leafValues>
            7.0898133516311646e-01 -9.2595773935317993e-01</leafValues></_></weakClassifiers></_>
    <!-- stage 14 -->
    <_>
      <maxWeakCount>2</maxWeakCount>
      <stageThreshold>-1.4170517027378082e-01</stageThreshold>
      <weakClassifiers>
        <_>
          <internalNodes>
            0 -1 17 -7.2904913395177573e-06</internalNodes>
          <leafValues>
            6.6666668653488159e-01 -8.3333331346511841e-01</leafValues></_>
        <_>
          <internalNodes>
            0 -1 18 -2.1564299240708351e-03</internalNodes>
          <leafValues>
            -8.0837184190750122e-01 8.5055279731750488e-01</leafValues></_></weakClassifiers></_>
    <!-- stage 15 -->
    <_>
      <maxWeakCount>2</maxWeakCount>
      <stageThreshold>6.4379826188087463e-02</stageThreshold>
      <weakClassifiers>
        <_>
          <internalNodes>
            0 -1 28 5.9571899473667145e-03</internalNodes>
          <leafValues>
            -7.2413790225982666e-01 1.</leafValues></_>
        <_>
          <internalNodes>
            0 -1 32 -1.7197916167788208e-04</internalNodes>
          <leafValues>
            -8.7092047929763794e-01 7.8851777315139771e-01</leafValues></_></weakClassifiers></_>
    <!-- stage 16 -->
    <_>
      <maxWeakCount>2</maxWeakCount>
      <stageThreshold>-1.7738687992095947e-01</stageThreshold>
      <weakClassifiers>
        <_>
          <internalNodes>
            0 -1 20 -3.9486625610152259e-05</internalNodes>
          <leafValues>
            6.8421053886413574e-01 -9.1304349899291992e-01</leafValues></_>
        <_>
          <internalNodes>
            0 -1 29 -7.3998917287099175e-06</internalNodes>
          <leafValues>
            7.7619779109954834e-01 -8.6159741878509521e-01</leafValues></_></weakClassifiers></_>
    <!-- stage 17 -->
    <_>
      <maxWeakCount>2</maxWeakCount>
      <stageThreshold>4.5899007469415665e-02</stageThreshold>
      <weakClassifiers>
        <_>
          <internalNodes>
            0 -1 16 -3.9753858000040054e-03</internalNodes>
          <leafValues>
            7.6470589637756348e-01 -8.3999997377395630e-01</leafValues></_>
        <_>
          <internalNodes>
            0 -1 1 -5.5029042065143585e-02</internalNodes>
          <leafValues>
            1. -7.1880686283111572e-01</leafValues></_></weakClassifiers></_>
    <!-- stage 18 -->
    <_>
      <maxWeakCount>1</maxWeakCount>
      <stageThreshold>1.</stageThreshold>
      <weakClassifiers>
        <_>
          <internalNodes>
            0 -1 0 3.7366818287409842e-04</internalNodes>
          <leafValues>
            1. -1.</leafValues></_></weakClassifiers></_></stages>
  <features>
    <_>
      <rects>
        <_>
          0 0 2 9 -1.</_>
        <_>
          0 3 2 3 3.</_></rects>
      <tilted>0</tilted></_>
    <_>
      <rects>
        <_>
          0 4 30 4 -1.</_>
        <_>
          10 4 10 4 3.</_></rects>
      <tilted>0</tilted></_>
    <_>
      <rects>
        <_>
          0 5 15 4 -1.</_>
        <_>
          5 5 5 4 3.</_></rects>
      <tilted>0</tilted></_>
    <_>
      <rects>
        <_>
          0 6 33 12 -1.</_>
        <_>
          0 12 33 6 2.</_></rects>
      <tilted>0</tilted></_>
    <_>
      <rects>
        <_>
          1 6 30 8 -1.</_>
        <_>
          1 6 15 4 2.</_>
        <_>
          16 10 15 4 2.</_></rects>
      <tilted>0</tilted></_>
    <_>
      <rects>
        <_>
          1 20 14 4 -1.</_>
        <_>
          1 20 7 2 2.</_>
        <_>
          8 22 7 2 2.</_></rects>
      <tilted>0</tilted></_>
    <_>
      <rects>
        <_>
          1 21 9 3 -1.</_>
        <_>
          4 21 3 3 3.</_></rects>
      <tilted>0</tilted></_>
    <_>
      <rects>
        <_>
          3 6 21 16 -1.</_>
        <_>
          3 14 21 8 2.</_></rects>
      <tilted>0</tilted></_>
    <_>
      <rects>
        <_>
          4 5 6 13 -1.</_>
        <_>
          6 5 2 13 3.</_></rects>
      <tilted>0</tilted></_>
    <_>
      <rects>
        <_>
          4 5 20 6 -1.</_>
        <_>
          4 5 10 3 2.</_>
        <_>
          14 8 10 3 2.</_></rects>
      <tilted>0</tilted></_>
    <_>
      <rects>
        <_>
          6 4 28 18 -1.</_>
        <_>
          6 13 28 9 2.</_></rects>
      <tilted>0</tilted></_>
    <_>
      <rects>
        <_>
          7 1 20 9 -1.</_>
        <_>
          7 4 20 3 3.</_></rects>
      <tilted>0</tilted></_>
    <_>
      <rects>
        <_>
          7 6 11 12 -1.</_>
        <_>
          7 10 11 4 3.</_></rects>
      <tilted>0</tilted></_>
    <_>
      <rects>
        <_>
          8 6 20 1 -1.</_>
        <_>
          18 6 10 1 2.</_></rects>
      <tilted>0</tilted></_>
    <_>
      <rects>
        <_>
          9 17 2 1 -1.</_>
        <_>
          10 17 1 1 2.</_></rects>
      <tilted>0</tilted></_>
    <_>
      <rects>
        <_>
          10 0 11 9 -1.</_>
        <_>
          10 3 11 3 3.</_></rects>
      <tilted>0</tilted></_>
    <_>
      <rects>
        <_>
          12 1 7 6 -1.</_>
        <_>
          12 3 7 2 3.</_></rects>
      <tilted>0</tilted></_>
    <_>
      <rects>
        <_>
          12 10 10 3 -1.</_>
        <_>
          12 11 10 1 3.</_></rects>
      <tilted>0</tilted></_>
    <_>
      <rects>
        <_>
          13 6 8 14 -1.</_>
        <_>
          13 6 4 7 2.</_>
        <_>
          17 13 4 7 2.</_></rects>
      <tilted>0</tilted></_>
    <_>
      <rects>
        <_>
          13 12 1 4 -1.</_>
        <_>
          13 14 1 2 2.</_></rects>
      <tilted>0</tilted></_>
    <_>
      <rects>
        <_>
          13 13 6 1 -1.</_>
        <_>
          16 13 3 1 2.</_></rects>
      <tilted>0</tilted></_>
    <_>
      <rects>
        <_>
          13 17 6 3 -1.</_>
        <_>
          15 17 2 3 3.</_></rects>
      <tilted>0</tilted></_>
    <_>
      <rects>
        <_>
          14 13 10 6 -1.</_>
        <_>
          14 13 5 3 2.</_>
        <_>
          19 16 5 3 2.</_></rects>
      <tilted>0</tilted></_>
    <_>
      <rects>
        <_>
          14 14 1 3 -1.</_>
        <_>
          14 15 1 1 3.</_></rects>
      <tilted>0</tilted></_>
    <_>
      <rects>
        <_>
          17 10 3 10 -1.</_>
        <_>
          18 10 1 10 3.</_></rects>
      <tilted>0</tilted></_>
    <_>
      <rects>
        <_>
          17 11 3 8 -1.</_>
        <_>
          18 11 1 8 3.</_></rects>
      <tilted>0</tilted></_>
    <_>
      <rects>
        <_>
          20 21 14 2 -1.</_>
        <_>
          27 21 7 2 2.</_></rects>
      <tilted>0</tilted></_>
    <_>
      <rects>
        <_>
          21 19 1 4 -1.</_>
        <_>
          21 21 1 2 2.</_></rects>
      <tilted>0</tilted></_>
    <_>
      <rects>
        <_>
          21 20 14 4 -1.</_>
        <_>
          21 20 7 2 2.</_>
        <_>
          28 22 7 2 2.</_></rects>
      <tilted>0</tilted></_>
    <_>
      <rects>
        <_>
          22 0 6 6 -1.</_>
        <_>
          22 0 3 3 2.</_>
        <_>
          25 3 3 3 2.</_></rects>
      <tilted>0</tilted></_>
    <_>
      <rects>
        <_>
          29 2 6 6 -1.</_>
        <_>
          29 4 6 2 3.</_></rects>
      <tilted>0</tilted></_>
    <_>
      <rects>
        <_>
          31 12 3 2 -1.</_>
        <_>
          31 13 3 1 2.</_></rects>
      <tilted>0</tilted></_>
    <_>
      <rects>
        <_>
          33 9 3 10 -1.</_>
        <_>
          33 14 3 5 2.</_></rects>
      <tilted>0</tilted></_></features></cascade>
</opencv_storage>
